<?xml version="1.0"?>
<opencv_storage>
<stage21>
  <maxWeakCount>15</maxWeakCount>
  <stageThreshold>-9.8530673980712891e-01</stageThreshold>
  <weakClassifiers>
    <_>
      <internalNodes>
        0 -1 184312 1.1150734644616023e-04</internalNodes>
      <leafValues>
        -3.5802468657493591e-01 2.6315790414810181e-01</leafValues></_>
    <_>
      <internalNodes>
        0 -1 83598 1.2387971580028534e-01</internalNodes>
      <leafValues>
        -1.1654377728700638e-01 6.8240207433700562e-01</leafValues></_>
    <_>
      <internalNodes>
        0 -1 190999 -9.9638509709620848e-06</internalNodes>
      <leafValues>
        -2.3315715789794922e-01 3.5204643011093140e-01</leafValues></_>
    <_>
      <internalNodes>
        0 -1 251912 2.0189896225929260e-02</internalNodes>
      <leafValues>
        9.6508048474788666e-02 -8.8374310731887817e-01</leafValues></_>
    <_>
      <internalNodes>
        0 -1 46428 2.2226800210773945e-03</internalNodes>
      <leafValues>
        1.1550407111644745e-01 -8.1881147623062134e-01</leafValues></_>
    <_>
      <internalNodes>
        0 -1 121456 -5.7659816229715943e-04</internalNodes>
      <leafValues>
        4.0379542112350464e-01 -2.5760906934738159e-01</leafValues></_>
    <_>
      <internalNodes>
        0 -1 135757 -3.2822363078594208e-02</internalNodes>
      <leafValues>
        4.5333558320999146e-01 -2.1115452051162720e-01</leafValues></_>
    <_>
      <internalNodes>
        0 -1 121647 2.6462100446224213e-02</internalNodes>
      <leafValues>
        -1.8403577804565430e-01 4.2675018310546875e-01</leafValues></_>
    <_>
      <internalNodes>
        0 -1 111050 7.5055065099149942e-04</internalNodes>
      <leafValues>
        -2.5923979282379150e-01 3.2171580195426941e-01</leafValues></_>
    <_>
      <internalNodes>
        0 -1 155801 -1.2039003922836855e-04</internalNodes>
      <leafValues>
        3.2171699404716492e-01 -2.9486325383186340e-01</leafValues></_>
    <_>
      <internalNodes>
        0 -1 255674 1.1912101035704836e-04</internalNodes>
      <leafValues>
        -2.5660187005996704e-01 3.6910426616668701e-01</leafValues></_>
    <_>
      <internalNodes>
        0 -1 111562 1.5253979712724686e-02</internalNodes>
      <leafValues>
        -1.1254739761352539e-01 7.1008741855621338e-01</leafValues></_>
    <_>
      <internalNodes>
        0 -1 68314 3.3158116042613983e-02</internalNodes>
      <leafValues>
        -1.3659870624542236e-01 6.3864290714263916e-01</leafValues></_>
    <_>
      <internalNodes>
        0 -1 286640 1.0738855053205043e-05</internalNodes>
      <leafValues>
        2.2685293853282928e-01 -4.1892585158348083e-01</leafValues></_>
    <_>
      <internalNodes>
        0 -1 44839 -1.2920526205562055e-04</internalNodes>
      <leafValues>
        3.4196752309799194e-01 -2.8486612439155579e-01</leafValues></_></weakClassifiers></stage21>
</opencv_storage>
