<?xml version="1.0"?>
<opencv_storage>
<stage18>
  <maxWeakCount>12</maxWeakCount>
  <stageThreshold>-9.4646781682968140e-01</stageThreshold>
  <weakClassifiers>
    <_>
      <internalNodes>
        0 -1 286558 9.6716961706988513e-05</internalNodes>
      <leafValues>
        -3.6144578456878662e-01 3.0555555224418640e-01</leafValues></_>
    <_>
      <internalNodes>
        0 -1 237151 -5.1496960222721100e-02</internalNodes>
      <leafValues>
        7.5740188360214233e-01 -1.2179408222436905e-01</leafValues></_>
    <_>
      <internalNodes>
        0 -1 73412 4.7632184578105807e-04</internalNodes>
      <leafValues>
        -2.4882119894027710e-01 3.4050419926643372e-01</leafValues></_>
    <_>
      <internalNodes>
        0 -1 234564 -5.5738736409693956e-04</internalNodes>
      <leafValues>
        3.0026358366012573e-01 -3.0081728100776672e-01</leafValues></_>
    <_>
      <internalNodes>
        0 -1 17183 -5.2689653821289539e-03</internalNodes>
      <leafValues>
        -8.1815797090530396e-01 1.1659922450780869e-01</leafValues></_>
    <_>
      <internalNodes>
        0 -1 151043 -3.0167880468070507e-03</internalNodes>
      <leafValues>
        -7.2838944196701050e-01 1.2411276251077652e-01</leafValues></_>
    <_>
      <internalNodes>
        0 -1 254631 2.2850282490253448e-02</internalNodes>
      <leafValues>
        -1.4426244795322418e-01 6.7052793502807617e-01</leafValues></_>
    <_>
      <internalNodes>
        0 -1 238467 1.7652904614806175e-02</internalNodes>
      <leafValues>
        -2.5406125187873840e-01 4.1401329636573792e-01</leafValues></_>
    <_>
      <internalNodes>
        0 -1 228027 2.3686939850449562e-02</internalNodes>
      <leafValues>
        -2.1865859627723694e-01 5.9681969881057739e-01</leafValues></_>
    <_>
      <internalNodes>
        0 -1 232630 9.0958010405302048e-03</internalNodes>
      <leafValues>
        -2.1904918551445007e-01 4.9910438060760498e-01</leafValues></_>
    <_>
      <internalNodes>
        0 -1 273719 -3.0342880636453629e-03</internalNodes>
      <leafValues>
        -6.8910533189773560e-01 1.6025120019912720e-01</leafValues></_>
    <_>
      <internalNodes>
        0 -1 269474 -9.4593451649416238e-06</internalNodes>
      <leafValues>
        -4.6816527843475342e-01 2.3807196319103241e-01</leafValues></_></weakClassifiers></stage18>
</opencv_storage>
