<?xml version="1.0"?>
<opencv_storage>
<stage3>
  <maxWeakCount>11</maxWeakCount>
  <stageThreshold>-1.0177038908004761e+00</stageThreshold>
  <weakClassifiers>
    <_>
      <internalNodes>
        0 -1 29618 1.8184757232666016e-01</internalNodes>
      <leafValues>
        -3.7368419766426086e-01 6.8750000000000000e-01</leafValues></_>
    <_>
      <internalNodes>
        0 -1 56425 -1.5613179653882980e-02</internalNodes>
      <leafValues>
        5.7106477022171021e-01 -2.1636106073856354e-01</leafValues></_>
    <_>
      <internalNodes>
        0 -1 144238 -1.3572012539952993e-04</internalNodes>
      <leafValues>
        4.8600780963897705e-01 -2.9679387807846069e-01</leafValues></_>
    <_>
      <internalNodes>
        0 -1 258192 -1.2624479131773114e-04</internalNodes>
      <leafValues>
        5.4454880952835083e-01 -2.8389281034469604e-01</leafValues></_>
    <_>
      <internalNodes>
        0 -1 200661 -1.5220949426293373e-03</internalNodes>
      <leafValues>
        4.9663612246513367e-01 -2.6538860797882080e-01</leafValues></_>
    <_>
      <internalNodes>
        0 -1 163422 2.4618566385470331e-04</internalNodes>
      <leafValues>
        -2.0077244937419891e-01 5.4089987277984619e-01</leafValues></_>
    <_>
      <internalNodes>
        0 -1 1368 8.8939718902111053e-02</internalNodes>
      <leafValues>
        -2.0677511394023895e-01 6.0917991399765015e-01</leafValues></_>
    <_>
      <internalNodes>
        0 -1 162881 2.3888586089015007e-02</internalNodes>
      <leafValues>
        -1.8254940211772919e-01 7.1749228239059448e-01</leafValues></_>
    <_>
      <internalNodes>
        0 -1 193974 2.1720528602600098e-02</internalNodes>
      <leafValues>
        -2.0069789886474609e-01 5.5036944150924683e-01</leafValues></_>
    <_>
      <internalNodes>
        0 -1 254819 7.0290530857164413e-05</internalNodes>
      <leafValues>
        -2.7414870262145996e-01 5.6285864114761353e-01</leafValues></_>
    <_>
      <internalNodes>
        0 -1 261716 -1.0110545903444290e-02</internalNodes>
      <leafValues>
        5.6159222126007080e-01 -2.5368878245353699e-01</leafValues></_></weakClassifiers></stage3>
</opencv_storage>
