<?xml version="1.0"?>
<opencv_storage>
<stage4>
  <maxWeakCount>10</maxWeakCount>
  <stageThreshold>-1.1578420400619507e+00</stageThreshold>
  <weakClassifiers>
    <_>
      <internalNodes>
        0 -1 141607 -1.2997157871723175e-02</internalNodes>
      <leafValues>
        8.6363637447357178e-01 -2.6388889551162720e-01</leafValues></_>
    <_>
      <internalNodes>
        0 -1 239842 2.1526468917727470e-03</internalNodes>
      <leafValues>
        1.6011808812618256e-01 -6.4775902032852173e-01</leafValues></_>
    <_>
      <internalNodes>
        0 -1 253469 -1.4561652205884457e-03</internalNodes>
      <leafValues>
        -6.9338291883468628e-01 1.6147071123123169e-01</leafValues></_>
    <_>
      <internalNodes>
        0 -1 68258 -9.8947361111640930e-02</internalNodes>
      <leafValues>
        7.0261466503143311e-01 -1.6535101830959320e-01</leafValues></_>
    <_>
      <internalNodes>
        0 -1 174897 7.3231733404099941e-04</internalNodes>
      <leafValues>
        1.9545648992061615e-01 -5.9403115510940552e-01</leafValues></_>
    <_>
      <internalNodes>
        0 -1 17647 8.8905999436974525e-03</internalNodes>
      <leafValues>
        1.8400163948535919e-01 -6.7256307601928711e-01</leafValues></_>
    <_>
      <internalNodes>
        0 -1 283007 -1.5287604182958603e-03</internalNodes>
      <leafValues>
        -7.6579892635345459e-01 1.2750683724880219e-01</leafValues></_>
    <_>
      <internalNodes>
        0 -1 286615 -1.8193494761362672e-03</internalNodes>
      <leafValues>
        -9.5294320583343506e-01 8.2501627504825592e-02</leafValues></_>
    <_>
      <internalNodes>
        0 -1 246525 1.5247142873704433e-03</internalNodes>
      <leafValues>
        -1.9555602967739105e-01 6.2478113174438477e-01</leafValues></_>
    <_>
      <internalNodes>
        0 -1 98276 8.8333323597908020e-02</internalNodes>
      <leafValues>
        1.5326319634914398e-01 -7.2594845294952393e-01</leafValues></_></weakClassifiers></stage4>
</opencv_storage>
