<?xml version="1.0"?>
<opencv_storage>
<stage12>
  <maxWeakCount>15</maxWeakCount>
  <stageThreshold>-9.1828161478042603e-01</stageThreshold>
  <weakClassifiers>
    <_>
      <internalNodes>
        0 -1 275752 -6.4263776876032352e-03</internalNodes>
      <leafValues>
        6.3999998569488525e-01 -2.5352111458778381e-01</leafValues></_>
    <_>
      <internalNodes>
        0 -1 151168 -1.6986385453492403e-03</internalNodes>
      <leafValues>
        -5.1073044538497925e-01 1.1645472049713135e-01</leafValues></_>
    <_>
      <internalNodes>
        0 -1 23294 -3.5096495412290096e-03</internalNodes>
      <leafValues>
        5.8041781187057495e-01 -8.8001132011413574e-02</leafValues></_>
    <_>
      <internalNodes>
        0 -1 85461 1.1776583269238472e-02</internalNodes>
      <leafValues>
        -1.6881859302520752e-01 4.0887302160263062e-01</leafValues></_>
    <_>
      <internalNodes>
        0 -1 52092 -7.1305623278021812e-03</internalNodes>
      <leafValues>
        -6.1259800195693970e-01 1.2724719941616058e-01</leafValues></_>
    <_>
      <internalNodes>
        0 -1 180402 8.2189776003360748e-03</internalNodes>
      <leafValues>
        -1.0730090737342834e-01 7.4077260494232178e-01</leafValues></_>
    <_>
      <internalNodes>
        0 -1 264664 6.4206559909507632e-04</internalNodes>
      <leafValues>
        1.0580211877822876e-01 -7.9891711473464966e-01</leafValues></_>
    <_>
      <internalNodes>
        0 -1 50296 -1.9883479399140924e-04</internalNodes>
      <leafValues>
        4.6039590239524841e-01 -1.8660347163677216e-01</leafValues></_>
    <_>
      <internalNodes>
        0 -1 99060 1.5922816470265388e-02</internalNodes>
      <leafValues>
        1.5111120045185089e-01 -7.5948047637939453e-01</leafValues></_>
    <_>
      <internalNodes>
        0 -1 114714 -4.7119539231061935e-03</internalNodes>
      <leafValues>
        5.1762861013412476e-01 -2.1339678764343262e-01</leafValues></_>
    <_>
      <internalNodes>
        0 -1 274460 -2.9877685010433197e-03</internalNodes>
      <leafValues>
        -4.1693332791328430e-01 1.9812618196010590e-01</leafValues></_>
    <_>
      <internalNodes>
        0 -1 31101 -5.3945439867675304e-04</internalNodes>
      <leafValues>
        -3.3786705136299133e-01 2.3633182048797607e-01</leafValues></_>
    <_>
      <internalNodes>
        0 -1 283849 4.3015860137529671e-04</internalNodes>
      <leafValues>
        -2.4046041071414948e-01 3.5013872385025024e-01</leafValues></_>
    <_>
      <internalNodes>
        0 -1 67117 -1.4884758275002241e-03</internalNodes>
      <leafValues>
        -4.5448201894760132e-01 1.9756422936916351e-01</leafValues></_>
    <_>
      <internalNodes>
        0 -1 216537 5.0562713295221329e-04</internalNodes>
      <leafValues>
        -2.5558716058731079e-01 4.0101450681686401e-01</leafValues></_></weakClassifiers></stage12>
</opencv_storage>
