<?xml version="1.0"?>
<opencv_storage>
<stage1>
  <maxWeakCount>8</maxWeakCount>
  <stageThreshold>-7.2895276546478271e-01</stageThreshold>
  <weakClassifiers>
    <_>
      <internalNodes>
        0 -1 215229 -6.8083871155977249e-03</internalNodes>
      <leafValues>
        -8.4873950481414795e-01 7.0028014481067657e-02</leafValues></_>
    <_>
      <internalNodes>
        0 -1 165271 -1.3988915830850601e-02</internalNodes>
      <leafValues>
        6.8372559547424316e-01 -2.6430448889732361e-01</leafValues></_>
    <_>
      <internalNodes>
        0 -1 17640 -4.5322477817535400e-03</internalNodes>
      <leafValues>
        -8.0108356475830078e-01 1.8592034280300140e-01</leafValues></_>
    <_>
      <internalNodes>
        0 -1 206190 -1.9962834194302559e-03</internalNodes>
      <leafValues>
        -5.6453287601470947e-01 2.2584348917007446e-01</leafValues></_>
    <_>
      <internalNodes>
        0 -1 174908 5.8863656595349312e-03</internalNodes>
      <leafValues>
        2.8081160783767700e-01 -5.7792866230010986e-01</leafValues></_>
    <_>
      <internalNodes>
        0 -1 248960 -5.1872190088033676e-03</internalNodes>
      <leafValues>
        6.9391423463821411e-01 -3.2988750934600830e-01</leafValues></_>
    <_>
      <internalNodes>
        0 -1 280659 1.8020777497440577e-03</internalNodes>
      <leafValues>
        3.2536134123802185e-01 -5.2897220849990845e-01</leafValues></_>
    <_>
      <internalNodes>
        0 -1 166594 1.4216018840670586e-02</internalNodes>
      <leafValues>
        -2.3572167754173279e-01 7.5915932655334473e-01</leafValues></_></weakClassifiers></stage1>
</opencv_storage>
