<?xml version="1.0"?>
<opencv_storage>
<cascade>
  <stageType>BOOST</stageType>
  <featureType>HAAR</featureType>
  <height>24</height>
  <width>32</width>
  <stageParams>
    <boostType>GAB</boostType>
    <minHitRate>9.9500000476837158e-01</minHitRate>
    <maxFalseAlarm>5.0000000000000000e-01</maxFalseAlarm>
    <weightTrimRate>9.4999998807907104e-01</weightTrimRate>
    <maxDepth>1</maxDepth>
    <maxWeakCount>100</maxWeakCount></stageParams>
  <featureParams>
    <maxCatCount>0</maxCatCount>
    <featSize>1</featSize>
    <mode>BASIC</mode></featureParams>
  <stageNum>8</stageNum>
  <stages>
    <!-- stage 0 -->
    <_>
      <maxWeakCount>2</maxWeakCount>
      <stageThreshold>-2.8538292646408081e-01</stageThreshold>
      <weakClassifiers>
        <_>
          <internalNodes>
            0 -1 10 1.4832918345928192e-01</internalNodes>
          <leafValues>
            -9.6428573131561279e-01 6.6666668653488159e-01</leafValues></_>
        <_>
          <internalNodes>
            0 -1 20 -2.6505952700972557e-02</internalNodes>
          <leafValues>
            7.0295834541320801e-01 -9.5204961299896240e-01</leafValues></_></weakClassifiers></_>
    <!-- stage 1 -->
    <_>
      <maxWeakCount>3</maxWeakCount>
      <stageThreshold>-1.0716671943664551e+00</stageThreshold>
      <weakClassifiers>
        <_>
          <internalNodes>
            0 -1 12 6.1938804574310780e-03</internalNodes>
          <leafValues>
            -9.5744681358337402e-01 1.</leafValues></_>
        <_>
          <internalNodes>
            0 -1 21 -7.4893636628985405e-03</internalNodes>
          <leafValues>
            8.0096113681793213e-01 -9.0527749061584473e-01</leafValues></_>
        <_>
          <internalNodes>
            0 -1 14 -2.1899673156440258e-03</internalNodes>
          <leafValues>
            7.9105710983276367e-01 -8.6312884092330933e-01</leafValues></_></weakClassifiers></_>
    <!-- stage 2 -->
    <_>
      <maxWeakCount>3</maxWeakCount>
      <stageThreshold>-1.6676888465881348e+00</stageThreshold>
      <weakClassifiers>
        <_>
          <internalNodes>
            0 -1 7 -1.3829875737428665e-02</internalNodes>
          <leafValues>
            9.0909093618392944e-02 -9.7090911865234375e-01</leafValues></_>
        <_>
          <internalNodes>
            0 -1 15 -7.5604952871799469e-02</internalNodes>
          <leafValues>
            1. -8.6029869318008423e-01</leafValues></_>
        <_>
          <internalNodes>
            0 -1 18 -9.8087533842772245e-04</internalNodes>
          <leafValues>
            5.7098239660263062e-01 -8.9829927682876587e-01</leafValues></_></weakClassifiers></_>
    <!-- stage 3 -->
    <_>
      <maxWeakCount>3</maxWeakCount>
      <stageThreshold>-1.1639467477798462e+00</stageThreshold>
      <weakClassifiers>
        <_>
          <internalNodes>
            0 -1 1 1.3884942978620529e-02</internalNodes>
          <leafValues>
            -9.5053005218505859e-01 1.</leafValues></_>
        <_>
          <internalNodes>
            0 -1 2 8.4806442260742188e-02</internalNodes>
          <leafValues>
            -8.6251008510589600e-01 7.4002289772033691e-01</leafValues></_>
        <_>
          <internalNodes>
            0 -1 13 -2.5037845596671104e-02</internalNodes>
          <leafValues>
            6.4909338951110840e-01 -8.4104555845260620e-01</leafValues></_></weakClassifiers></_>
    <!-- stage 4 -->
    <_>
      <maxWeakCount>3</maxWeakCount>
      <stageThreshold>-1.4923577308654785e+00</stageThreshold>
      <weakClassifiers>
        <_>
          <internalNodes>
            0 -1 11 9.2635108157992363e-03</internalNodes>
          <leafValues>
            -9.5053005218505859e-01 1.</leafValues></_>
        <_>
          <internalNodes>
            0 -1 16 1.5356951393187046e-02</internalNodes>
          <leafValues>
            -9.0171319246292114e-01 3.2626476883888245e-01</leafValues></_>
        <_>
          <internalNodes>
            0 -1 8 -1.8257403746247292e-02</internalNodes>
          <leafValues>
            3.5988548398017883e-01 -1.</leafValues></_></weakClassifiers></_>
    <!-- stage 5 -->
    <_>
      <maxWeakCount>3</maxWeakCount>
      <stageThreshold>-1.5129814147949219e+00</stageThreshold>
      <weakClassifiers>
        <_>
          <internalNodes>
            0 -1 3 3.6993607878684998e-02</internalNodes>
          <leafValues>
            -9.5053005218505859e-01 1.</leafValues></_>
        <_>
          <internalNodes>
            0 -1 9 -8.3185443654656410e-03</internalNodes>
          <leafValues>
            1.9592499732971191e-01 -9.4764828681945801e-01</leafValues></_>
        <_>
          <internalNodes>
            0 -1 22 -6.3826064579188824e-03</internalNodes>
          <leafValues>
            6.6648286581039429e-01 -7.5837641954421997e-01</leafValues></_></weakClassifiers></_>
    <!-- stage 6 -->
    <_>
      <maxWeakCount>3</maxWeakCount>
      <stageThreshold>-1.0713591575622559e+00</stageThreshold>
      <weakClassifiers>
        <_>
          <internalNodes>
            0 -1 4 -2.7289506047964096e-02</internalNodes>
          <leafValues>
            5.0000000000000000e-01 -9.5035463571548462e-01</leafValues></_>
        <_>
          <internalNodes>
            0 -1 5 -1.4208609238266945e-02</internalNodes>
          <leafValues>
            5.8533936738967896e-01 -8.3316552639007568e-01</leafValues></_>
        <_>
          <internalNodes>
            0 -1 17 1.1906115338206291e-02</internalNodes>
          <leafValues>
            -7.0634394884109497e-01 8.8506424427032471e-01</leafValues></_></weakClassifiers></_>
    <!-- stage 7 -->
    <_>
      <maxWeakCount>3</maxWeakCount>
      <stageThreshold>-9.6301448345184326e-01</stageThreshold>
      <weakClassifiers>
        <_>
          <internalNodes>
            0 -1 6 -1.6253829002380371e-02</internalNodes>
          <leafValues>
            1. -9.5744681358337402e-01</leafValues></_>
        <_>
          <internalNodes>
            0 -1 19 -8.7472461163997650e-03</internalNodes>
          <leafValues>
            7.4313586950302124e-01 -9.0494579076766968e-01</leafValues></_>
        <_>
          <internalNodes>
            0 -1 0 4.3761540204286575e-02</internalNodes>
          <leafValues>
            -7.4870353937149048e-01 9.2060184478759766e-01</leafValues></_></weakClassifiers></_></stages>
  <features>
    <_>
      <rects>
        <_>
          0 2 10 10 -1.</_>
        <_>
          0 2 5 5 2.</_>
        <_>
          5 7 5 5 2.</_></rects>
      <tilted>0</tilted></_>
    <_>
      <rects>
        <_>
          1 21 16 2 -1.</_>
        <_>
          1 21 8 1 2.</_>
        <_>
          9 22 8 1 2.</_></rects>
      <tilted>0</tilted></_>
    <_>
      <rects>
        <_>
          2 6 10 10 -1.</_>
        <_>
          7 6 5 10 2.</_></rects>
      <tilted>0</tilted></_>
    <_>
      <rects>
        <_>
          4 1 11 4 -1.</_>
        <_>
          4 3 11 2 2.</_></rects>
      <tilted>0</tilted></_>
    <_>
      <rects>
        <_>
          6 6 4 14 -1.</_>
        <_>
          6 6 2 7 2.</_>
        <_>
          8 13 2 7 2.</_></rects>
      <tilted>0</tilted></_>
    <_>
      <rects>
        <_>
          9 1 10 3 -1.</_>
        <_>
          9 2 10 1 3.</_></rects>
      <tilted>0</tilted></_>
    <_>
      <rects>
        <_>
          9 2 10 4 -1.</_>
        <_>
          9 2 5 2 2.</_>
        <_>
          14 4 5 2 2.</_></rects>
      <tilted>0</tilted></_>
    <_>
      <rects>
        <_>
          9 5 4 10 -1.</_>
        <_>
          9 5 2 5 2.</_>
        <_>
          11 10 2 5 2.</_></rects>
      <tilted>0</tilted></_>
    <_>
      <rects>
        <_>
          10 2 8 18 -1.</_>
        <_>
          10 2 4 9 2.</_>
        <_>
          14 11 4 9 2.</_></rects>
      <tilted>0</tilted></_>
    <_>
      <rects>
        <_>
          10 9 11 2 -1.</_>
        <_>
          10 10 11 1 2.</_></rects>
      <tilted>0</tilted></_>
    <_>
      <rects>
        <_>
          11 0 8 18 -1.</_>
        <_>
          11 6 8 6 3.</_></rects>
      <tilted>0</tilted></_>
    <_>
      <rects>
        <_>
          13 12 8 2 -1.</_>
        <_>
          13 12 4 1 2.</_>
        <_>
          17 13 4 1 2.</_></rects>
      <tilted>0</tilted></_>
    <_>
      <rects>
        <_>
          15 5 2 3 -1.</_>
        <_>
          15 6 2 1 3.</_></rects>
      <tilted>0</tilted></_>
    <_>
      <rects>
        <_>
          18 2 6 16 -1.</_>
        <_>
          20 2 2 16 3.</_></rects>
      <tilted>0</tilted></_>
    <_>
      <rects>
        <_>
          19 2 1 3 -1.</_>
        <_>
          19 3 1 1 3.</_></rects>
      <tilted>0</tilted></_>
    <_>
      <rects>
        <_>
          22 0 3 18 -1.</_>
        <_>
          22 9 3 9 2.</_></rects>
      <tilted>0</tilted></_>
    <_>
      <rects>
        <_>
          23 1 4 6 -1.</_>
        <_>
          23 3 4 2 3.</_></rects>
      <tilted>0</tilted></_>
    <_>
      <rects>
        <_>
          23 3 6 3 -1.</_>
        <_>
          23 4 6 1 3.</_></rects>
      <tilted>0</tilted></_>
    <_>
      <rects>
        <_>
          24 6 2 2 -1.</_>
        <_>
          24 7 2 1 2.</_></rects>
      <tilted>0</tilted></_>
    <_>
      <rects>
        <_>
          26 0 1 15 -1.</_>
        <_>
          26 5 1 5 3.</_></rects>
      <tilted>0</tilted></_>
    <_>
      <rects>
        <_>
          26 4 6 6 -1.</_>
        <_>
          29 4 3 6 2.</_></rects>
      <tilted>0</tilted></_>
    <_>
      <rects>
        <_>
          26 7 3 5 -1.</_>
        <_>
          27 7 1 5 3.</_></rects>
      <tilted>0</tilted></_>
    <_>
      <rects>
        <_>
          27 6 2 8 -1.</_>
        <_>
          27 6 1 4 2.</_>
        <_>
          28 10 1 4 2.</_></rects>
      <tilted>0</tilted></_></features></cascade>
</opencv_storage>
